digraph Tree {
node [shape=box] ;
0 [label="X[2] <= 0.5\ngini = 0.4756\nsamples = 3479\nvalue = [2124, 1355]"] ;
1 [label="X[3] <= 0.5\ngini = 0.494\nsamples = 1732\nvalue = [771, 961]"] ;
0 -> 1 [labeldistance=2.5, labelangle=45, headlabel="True"] ;
2 [label="X[1] <= 0.5\ngini = 0.2856\nsamples = 898\nvalue = [155, 743]"] ;
1 -> 2 ;
3 [label="gini = 0.0\nsamples = 664\nvalue = [0, 664]"] ;
2 -> 3 ;
4 [label="X[0] <= 0.5\ngini = 0.4473\nsamples = 234\nvalue = [155, 79]"] ;
2 -> 4 ;
5 [label="gini = 0.0\nsamples = 79\nvalue = [0, 79]"] ;
4 -> 5 ;
6 [label="gini = 0.0\nsamples = 155\nvalue = [155, 0]"] ;
4 -> 6 ;
7 [label="X[0] <= 0.5\ngini = 0.3861\nsamples = 834\nvalue = [616, 218]"] ;
1 -> 7 ;
8 [label="X[1] <= 0.5\ngini = 0.3035\nsamples = 268\nvalue = [50, 218]"] ;
7 -> 8 ;
9 [label="gini = 0.0\nsamples = 218\nvalue = [0, 218]"] ;
8 -> 9 ;
10 [label="gini = 0.0\nsamples = 50\nvalue = [50, 0]"] ;
8 -> 10 ;
11 [label="gini = 0.0\nsamples = 566\nvalue = [566, 0]"] ;
7 -> 11 ;
12 [label="X[0] <= 0.5\ngini = 0.3493\nsamples = 1747\nvalue = [1353, 394]"] ;
0 -> 12 [labeldistance=2.5, labelangle=-45, headlabel="False"] ;
13 [label="X[1] <= 0.5\ngini = 0.4999\nsamples = 797\nvalue = [403, 394]"] ;
12 -> 13 ;
14 [label="X[3] <= 0.5\ngini = 0.4459\nsamples = 593\nvalue = [199, 394]"] ;
13 -> 14 ;
15 [label="gini = 0.0\nsamples = 394\nvalue = [0, 394]"] ;
14 -> 15 ;
16 [label="gini = 0.0\nsamples = 199\nvalue = [199, 0]"] ;
14 -> 16 ;
17 [label="gini = 0.0\nsamples = 204\nvalue = [204, 0]"] ;
13 -> 17 ;
18 [label="gini = 0.0\nsamples = 950\nvalue = [950, 0]"] ;
12 -> 18 ;
}